
Options: -F "weka.filters.unsupervised.attribute.RemoveType -T string" -W weka.classifiers.trees.J48 -- -C 0.1 

FilteredClassifier using weka.classifiers.trees.J48 -C 0.1 -M 2 on data filtered through weka.filters.unsupervised.attribute.RemoveType -T string

Filtered Header
@relation experiment-weka.filters.unsupervised.attribute.RemoveType-Tstring

@attribute MOTIF_1 numeric
@attribute MOTIF_2 numeric
@attribute MOTIF_3 numeric
@attribute MOTIF_4 numeric
@attribute MOTIF_5 numeric
@attribute class {n,p}

@data


Classifier Model
J48 pruned tree
------------------

MOTIF_1 <= 0.026: n (259.0)
MOTIF_1 > 0.026
|   MOTIF_2 <= 13: n (795.0/82.0)
|   MOTIF_2 > 13
|   |   MOTIF_3 <= 6.6
|   |   |   MOTIF_1 <= 81: p (187.0/79.0)
|   |   |   MOTIF_1 > 81
|   |   |   |   MOTIF_3 <= 1.4: n (79.0/16.0)
|   |   |   |   MOTIF_3 > 1.4: p (58.0/27.0)
|   |   MOTIF_3 > 6.6: n (2622.0/763.0)

Number of Leaves  : 	6

Size of the tree : 	11


Time taken to build model: 0.22 seconds
Time taken to test model on training data: 0.11 seconds

=== Error on training data ===

Correctly Classified Instances        3033               75.825  %
Incorrectly Classified Instances       967               24.175  %
Kappa statistic                          0.1385
Mean absolute error                      0.3437
Root mean squared error                  0.4145
Relative absolute error                 91.6282 %
Root relative squared error             95.7306 %
Total Number of Instances             4000     


=== Detailed Accuracy By Class ===

               TP Rate   FP Rate   Precision   Recall  F-Measure   ROC Area  Class
                 0.965     0.861      0.771     0.965     0.857      0.658    n
                 0.139     0.035      0.567     0.139     0.223      0.658    p
Weighted Avg.    0.758     0.655      0.72      0.758     0.698      0.658


=== Confusion Matrix ===

    a    b   <-- classified as
 2894  106 |    a = n
  861  139 |    b = p



=== Stratified cross-validation ===

Correctly Classified Instances        2989               74.725  %
Incorrectly Classified Instances      1011               25.275  %
Kappa statistic                          0.0237
Mean absolute error                      0.3658
Root mean squared error                  0.4297
Relative absolute error                 97.5189 %
Root relative squared error             99.2266 %
Total Number of Instances             4000     


=== Detailed Accuracy By Class ===

               TP Rate   FP Rate   Precision   Recall  F-Measure   ROC Area  Class
                 0.986     0.97       0.753     0.986     0.854      0.564    n
                 0.03      0.014      0.423     0.03      0.056      0.564    p
Weighted Avg.    0.747     0.731      0.67      0.747     0.655      0.564


=== Confusion Matrix ===

    a    b   <-- classified as
 2959   41 |    a = n
  970   30 |    b = p

